<?xml version="1.0"?>
<opencv_storage>
<cascade>
  <stageType>BOOST</stageType>
  <featureType>HAAR</featureType>
  <height>32</height>
  <width>32</width>
  <stageParams>
    <boostType>GAB</boostType>
    <minHitRate>9.9500000476837158e-01</minHitRate>
    <maxFalseAlarm>5.0000000000000000e-01</maxFalseAlarm>
    <weightTrimRate>9.4999998807907104e-01</weightTrimRate>
    <maxDepth>1</maxDepth>
    <maxWeakCount>100</maxWeakCount></stageParams>
  <featureParams>
    <maxCatCount>0</maxCatCount>
    <featSize>1</featSize>
    <mode>BASIC</mode></featureParams>
  <stageNum>4</stageNum>
  <stages>
    <!-- stage 0 -->
    <_>
      <maxWeakCount>3</maxWeakCount>
      <stageThreshold>-1.2869828939437866e+00</stageThreshold>
      <weakClassifiers>
        <_>
          <internalNodes>
            0 -1 7 -4.0851724147796631e-01</internalNodes>
          <leafValues>
            8.4615385532379150e-01 -9.6847289800643921e-01</leafValues></_>
        <_>
          <internalNodes>
            0 -1 3 -3.6620132625102997e-02</internalNodes>
          <leafValues>
            5.2096194028854370e-01 -9.2957949638366699e-01</leafValues></_>
        <_>
          <internalNodes>
            0 -1 6 -6.3598766922950745e-02</internalNodes>
          <leafValues>
            7.5910598039627075e-01 -8.3947193622589111e-01</leafValues></_></weakClassifiers></_>
    <!-- stage 1 -->
    <_>
      <maxWeakCount>3</maxWeakCount>
      <stageThreshold>-1.3755424022674561e+00</stageThreshold>
      <weakClassifiers>
        <_>
          <internalNodes>
            0 -1 0 1.1208429932594299e-02</internalNodes>
          <leafValues>
            -9.6996998786926270e-01 -1.0344827920198441e-01</leafValues></_>
        <_>
          <internalNodes>
            0 -1 2 -1.0059235617518425e-02</internalNodes>
          <leafValues>
            3.9748951792716980e-01 -8.6323076486587524e-01</leafValues></_>
        <_>
          <internalNodes>
            0 -1 1 4.1117104701697826e-03</internalNodes>
          <leafValues>
            -8.0306202173233032e-01 6.6307675838470459e-01</leafValues></_></weakClassifiers></_>
    <!-- stage 2 -->
    <_>
      <maxWeakCount>3</maxWeakCount>
      <stageThreshold>-1.5844321250915527e+00</stageThreshold>
      <weakClassifiers>
        <_>
          <internalNodes>
            0 -1 5 -9.1909438371658325e-02</internalNodes>
          <leafValues>
            5.0000000000000000e-01 -9.5686274766921997e-01</leafValues></_>
        <_>
          <internalNodes>
            0 -1 11 -7.2799823246896267e-03</internalNodes>
          <leafValues>
            2.2012171149253845e-01 -8.5294628143310547e-01</leafValues></_>
        <_>
          <internalNodes>
            0 -1 9 2.3429989814758301e-02</internalNodes>
          <leafValues>
            -8.4769105911254883e-01 3.7213587760925293e-01</leafValues></_></weakClassifiers></_>
    <!-- stage 3 -->
    <_>
      <maxWeakCount>3</maxWeakCount>
      <stageThreshold>-1.8939176797866821e+00</stageThreshold>
      <weakClassifiers>
        <_>
          <internalNodes>
            0 -1 4 2.5322628021240234e-01</internalNodes>
          <leafValues>
            -9.5312500000000000e-01 1.</leafValues></_>
        <_>
          <internalNodes>
            0 -1 8 -4.1205793619155884e-02</internalNodes>
          <leafValues>
            1.7222208902239799e-02 -8.6217427253723145e-01</leafValues></_>
        <_>
          <internalNodes>
            0 -1 10 1.5580886043608189e-02</internalNodes>
          <leafValues>
            -9.5801484584808350e-01 2.0443893969058990e-01</leafValues></_></weakClassifiers></_></stages>
  <features>
    <_>
      <rects>
        <_>
          0 6 2 15 -1.</_>
        <_>
          1 6 1 15 2.</_></rects>
      <tilted>0</tilted></_>
    <_>
      <rects>
        <_>
          0 15 2 10 -1.</_>
        <_>
          1 15 1 10 2.</_></rects>
      <tilted>0</tilted></_>
    <_>
      <rects>
        <_>
          0 17 2 15 -1.</_>
        <_>
          1 17 1 15 2.</_></rects>
      <tilted>0</tilted></_>
    <_>
      <rects>
        <_>
          1 0 26 6 -1.</_>
        <_>
          1 0 13 3 2.</_>
        <_>
          14 3 13 3 2.</_></rects>
      <tilted>0</tilted></_>
    <_>
      <rects>
        <_>
          1 0 21 16 -1.</_>
        <_>
          1 8 21 8 2.</_></rects>
      <tilted>0</tilted></_>
    <_>
      <rects>
        <_>
          1 7 10 9 -1.</_>
        <_>
          6 7 5 9 2.</_></rects>
      <tilted>0</tilted></_>
    <_>
      <rects>
        <_>
          1 29 30 3 -1.</_>
        <_>
          11 29 10 3 3.</_></rects>
      <tilted>0</tilted></_>
    <_>
      <rects>
        <_>
          2 2 30 18 -1.</_>
        <_>
          12 2 10 18 3.</_></rects>
      <tilted>0</tilted></_>
    <_>
      <rects>
        <_>
          10 27 21 3 -1.</_>
        <_>
          17 27 7 3 3.</_></rects>
      <tilted>0</tilted></_>
    <_>
      <rects>
        <_>
          16 0 16 10 -1.</_>
        <_>
          16 0 8 5 2.</_>
        <_>
          24 5 8 5 2.</_></rects>
      <tilted>0</tilted></_>
    <_>
      <rects>
        <_>
          23 5 9 18 -1.</_>
        <_>
          23 11 9 6 3.</_></rects>
      <tilted>0</tilted></_>
    <_>
      <rects>
        <_>
          30 4 2 20 -1.</_>
        <_>
          31 4 1 20 2.</_></rects>
      <tilted>0</tilted></_></features></cascade>
</opencv_storage>
