<?xml version="1.0"?>
<opencv_storage>
<cascade>
  <stageType>BOOST</stageType>
  <featureType>HAAR</featureType>
  <height>20</height>
  <width>20</width>
  <stageParams>
    <boostType>GAB</boostType>
    <minHitRate>9.9500000476837158e-01</minHitRate>
    <maxFalseAlarm>5.0000000000000000e-01</maxFalseAlarm>
    <weightTrimRate>9.4999998807907104e-01</weightTrimRate>
    <maxDepth>1</maxDepth>
    <maxWeakCount>100</maxWeakCount></stageParams>
  <featureParams>
    <maxCatCount>0</maxCatCount>
    <featSize>1</featSize>
    <mode>BASIC</mode></featureParams>
  <stageNum>6</stageNum>
  <stages>
    <!-- stage 0 -->
    <_>
      <maxWeakCount>3</maxWeakCount>
      <stageThreshold>-1.2695989608764648e+00</stageThreshold>
      <weakClassifiers>
        <_>
          <internalNodes>
            0 -1 15 2.6301133632659912e-01</internalNodes>
          <leafValues>
            -9.8608350753784180e-01 7.5000000000000000e-01</leafValues></_>
        <_>
          <internalNodes>
            0 -1 13 7.4638992547988892e-02</internalNodes>
          <leafValues>
            -9.6661001443862915e-01 6.4886653423309326e-01</leafValues></_>
        <_>
          <internalNodes>
            0 -1 1 7.3880225419998169e-02</internalNodes>
          <leafValues>
            -9.4956678152084351e-01 6.8309456110000610e-01</leafValues></_></weakClassifiers></_>
    <!-- stage 1 -->
    <_>
      <maxWeakCount>3</maxWeakCount>
      <stageThreshold>-1.5420738458633423e+00</stageThreshold>
      <weakClassifiers>
        <_>
          <internalNodes>
            0 -1 11 -1.3296142220497131e-01</internalNodes>
          <leafValues>
            1. -9.7823935747146606e-01</leafValues></_>
        <_>
          <internalNodes>
            0 -1 0 -8.8480703532695770e-02</internalNodes>
          <leafValues>
            3.8721719384193420e-01 -9.5739287137985229e-01</leafValues></_>
        <_>
          <internalNodes>
            0 -1 16 1.4917086809873581e-02</internalNodes>
          <leafValues>
            -9.5105159282684326e-01 5.2954596281051636e-01</leafValues></_></weakClassifiers></_>
    <!-- stage 2 -->
    <_>
      <maxWeakCount>3</maxWeakCount>
      <stageThreshold>-1.7667335271835327e+00</stageThreshold>
      <weakClassifiers>
        <_>
          <internalNodes>
            0 -1 3 -6.4371913671493530e-02</internalNodes>
          <leafValues>
            2.5000000000000000e-01 -9.8210734128952026e-01</leafValues></_>
        <_>
          <internalNodes>
            0 -1 10 1.3064354658126831e-02</internalNodes>
          <leafValues>
            -9.6433377265930176e-01 1.5181069076061249e-01</leafValues></_>
        <_>
          <internalNodes>
            0 -1 14 1.9324868917465210e-02</internalNodes>
          <leafValues>
            -9.3643689155578613e-01 3.0882972478866577e-01</leafValues></_></weakClassifiers></_>
    <!-- stage 3 -->
    <_>
      <maxWeakCount>3</maxWeakCount>
      <stageThreshold>-1.7692041397094727e+00</stageThreshold>
      <weakClassifiers>
        <_>
          <internalNodes>
            0 -1 7 -5.6354064494371414e-02</internalNodes>
          <leafValues>
            1. -9.7823935747146606e-01</leafValues></_>
        <_>
          <internalNodes>
            0 -1 5 -4.2786266654729843e-02</internalNodes>
          <leafValues>
            1.1884924024343491e-01 -9.4279277324676514e-01</leafValues></_>
        <_>
          <internalNodes>
            0 -1 9 -1.4620005153119564e-02</internalNodes>
          <leafValues>
            3.9845538139343262e-01 -9.0981405973434448e-01</leafValues></_></weakClassifiers></_>
    <!-- stage 4 -->
    <_>
      <maxWeakCount>3</maxWeakCount>
      <stageThreshold>-1.8987981081008911e+00</stageThreshold>
      <weakClassifiers>
        <_>
          <internalNodes>
            0 -1 8 2.2531132400035858e-01</internalNodes>
          <leafValues>
            -9.7821784019470215e-01 5.0000000000000000e-01</leafValues></_>
        <_>
          <internalNodes>
            0 -1 6 -5.3712921217083931e-03</internalNodes>
          <leafValues>
            -4.8385686241090298e-03 -9.3282282352447510e-01</leafValues></_>
        <_>
          <internalNodes>
            0 -1 12 -2.6443521492183208e-03</internalNodes>
          <leafValues>
            2.1426211297512054e-01 -9.1574168205261230e-01</leafValues></_></weakClassifiers></_>
    <!-- stage 5 -->
    <_>
      <maxWeakCount>3</maxWeakCount>
      <stageThreshold>-1.4668715000152588e+00</stageThreshold>
      <weakClassifiers>
        <_>
          <internalNodes>
            0 -1 17 8.9846685528755188e-02</internalNodes>
          <leafValues>
            -9.8013901710510254e-01 1.4285714924335480e-01</leafValues></_>
        <_>
          <internalNodes>
            0 -1 4 5.5425725877285004e-02</internalNodes>
          <leafValues>
            -9.0134221315383911e-01 6.0457789897918701e-01</leafValues></_>
        <_>
          <internalNodes>
            0 -1 2 -1.6275689005851746e-02</internalNodes>
          <leafValues>
            4.1460973024368286e-01 -9.1858315467834473e-01</leafValues></_></weakClassifiers></_></stages>
  <features>
    <_>
      <rects>
        <_>
          0 6 4 14 -1.</_>
        <_>
          2 6 2 14 2.</_></rects>
      <tilted>0</tilted></_>
    <_>
      <rects>
        <_>
          0 7 12 8 -1.</_>
        <_>
          0 7 6 4 2.</_>
        <_>
          6 11 6 4 2.</_></rects>
      <tilted>0</tilted></_>
    <_>
      <rects>
        <_>
          0 12 2 8 -1.</_>
        <_>
          1 12 1 8 2.</_></rects>
      <tilted>0</tilted></_>
    <_>
      <rects>
        <_>
          1 2 18 1 -1.</_>
        <_>
          7 2 6 1 3.</_></rects>
      <tilted>0</tilted></_>
    <_>
      <rects>
        <_>
          2 0 2 16 -1.</_>
        <_>
          2 8 2 8 2.</_></rects>
      <tilted>0</tilted></_>
    <_>
      <rects>
        <_>
          3 1 3 8 -1.</_>
        <_>
          3 5 3 4 2.</_></rects>
      <tilted>0</tilted></_>
    <_>
      <rects>
        <_>
          3 2 2 2 -1.</_>
        <_>
          4 2 1 2 2.</_></rects>
      <tilted>0</tilted></_>
    <_>
      <rects>
        <_>
          3 15 16 1 -1.</_>
        <_>
          11 15 8 1 2.</_></rects>
      <tilted>0</tilted></_>
    <_>
      <rects>
        <_>
          5 10 9 9 -1.</_>
        <_>
          5 13 9 3 3.</_></rects>
      <tilted>0</tilted></_>
    <_>
      <rects>
        <_>
          6 9 13 4 -1.</_>
        <_>
          6 11 13 2 2.</_></rects>
      <tilted>0</tilted></_>
    <_>
      <rects>
        <_>
          7 1 3 5 -1.</_>
        <_>
          8 1 1 5 3.</_></rects>
      <tilted>0</tilted></_>
    <_>
      <rects>
        <_>
          8 13 6 6 -1.</_>
        <_>
          8 16 6 3 2.</_></rects>
      <tilted>0</tilted></_>
    <_>
      <rects>
        <_>
          9 0 2 2 -1.</_>
        <_>
          9 1 2 1 2.</_></rects>
      <tilted>0</tilted></_>
    <_>
      <rects>
        <_>
          9 14 10 6 -1.</_>
        <_>
          9 14 5 3 2.</_>
        <_>
          14 17 5 3 2.</_></rects>
      <tilted>0</tilted></_>
    <_>
      <rects>
        <_>
          10 18 6 2 -1.</_>
        <_>
          13 18 3 2 2.</_></rects>
      <tilted>0</tilted></_>
    <_>
      <rects>
        <_>
          11 1 8 19 -1.</_>
        <_>
          15 1 4 19 2.</_></rects>
      <tilted>0</tilted></_>
    <_>
      <rects>
        <_>
          13 14 6 4 -1.</_>
        <_>
          13 14 3 2 2.</_>
        <_>
          16 16 3 2 2.</_></rects>
      <tilted>0</tilted></_>
    <_>
      <rects>
        <_>
          15 3 4 8 -1.</_>
        <_>
          17 3 2 8 2.</_></rects>
      <tilted>0</tilted></_></features></cascade>
</opencv_storage>
