<?xml version="1.0"?>
<opencv_storage>
<cascade>
  <stageType>BOOST</stageType>
  <featureType>HAAR</featureType>
  <height>50</height>
  <width>50</width>
  <stageParams>
    <boostType>GAB</boostType>
    <minHitRate>9.9500000476837158e-01</minHitRate>
    <maxFalseAlarm>5.0000000000000000e-01</maxFalseAlarm>
    <weightTrimRate>9.4999998807907104e-01</weightTrimRate>
    <maxDepth>1</maxDepth>
    <maxWeakCount>100</maxWeakCount></stageParams>
  <featureParams>
    <maxCatCount>0</maxCatCount>
    <featSize>1</featSize>
    <mode>BASIC</mode></featureParams>
  <stageNum>3</stageNum>
  <stages>
    <!-- stage 0 -->
    <_>
      <maxWeakCount>2</maxWeakCount>
      <stageThreshold>1.1102230246251565e-16</stageThreshold>
      <weakClassifiers>
        <_>
          <internalNodes>
            0 -1 3 1.9632521271705627e-01</internalNodes>
          <leafValues>
            -9.9401795864105225e-01 1.</leafValues></_>
        <_>
          <internalNodes>
            0 -1 2 7.1212403476238251e-02</internalNodes>
          <leafValues>
            -1. 1.</leafValues></_></weakClassifiers></_>
    <!-- stage 1 -->
    <_>
      <maxWeakCount>3</maxWeakCount>
      <stageThreshold>-1.5427792072296143e+00</stageThreshold>
      <weakClassifiers>
        <_>
          <internalNodes>
            0 -1 0 -2.8806042671203613e-01</internalNodes>
          <leafValues>
            6.0000002384185791e-01 -9.9002993106842041e-01</leafValues></_>
        <_>
          <internalNodes>
            0 -1 6 -4.2280640453100204e-02</internalNodes>
          <leafValues>
            3.7995642423629761e-01 -9.7962599992752075e-01</leafValues></_>
        <_>
          <internalNodes>
            0 -1 1 -2.1058247983455658e-01</internalNodes>
          <leafValues>
            4.2687678337097168e-01 -9.6898037195205688e-01</leafValues></_></weakClassifiers></_>
    <!-- stage 2 -->
    <_>
      <maxWeakCount>3</maxWeakCount>
      <stageThreshold>-1.5752276182174683e+00</stageThreshold>
      <weakClassifiers>
        <_>
          <internalNodes>
            0 -1 7 -9.0900640934705734e-03</internalNodes>
          <leafValues>
            5.0000000000000000e-01 -9.8606967926025391e-01</leafValues></_>
        <_>
          <internalNodes>
            0 -1 4 3.1008827686309814e-01</internalNodes>
          <leafValues>
            -9.7896182537078857e-01 3.2993701100349426e-01</leafValues></_>
        <_>
          <internalNodes>
            0 -1 5 -1.1974697932600975e-02</internalNodes>
          <leafValues>
            6.9973587989807129e-01 -9.1909497976303101e-01</leafValues></_></weakClassifiers></_></stages>
  <features>
    <_>
      <rects>
        <_>
          0 7 36 25 -1.</_>
        <_>
          12 7 12 25 3.</_></rects>
      <tilted>0</tilted></_>
    <_>
      <rects>
        <_>
          0 23 38 27 -1.</_>
        <_>
          0 32 38 9 3.</_></rects>
      <tilted>0</tilted></_>
    <_>
      <rects>
        <_>
          0 37 44 8 -1.</_>
        <_>
          0 37 22 4 2.</_>
        <_>
          22 41 22 4 2.</_></rects>
      <tilted>0</tilted></_>
    <_>
      <rects>
        <_>
          2 1 36 28 -1.</_>
        <_>
          2 1 18 14 2.</_>
        <_>
          20 15 18 14 2.</_></rects>
      <tilted>0</tilted></_>
    <_>
      <rects>
        <_>
          10 16 40 33 -1.</_>
        <_>
          30 16 20 33 2.</_></rects>
      <tilted>0</tilted></_>
    <_>
      <rects>
        <_>
          20 0 22 4 -1.</_>
        <_>
          20 2 22 2 2.</_></rects>
      <tilted>0</tilted></_>
    <_>
      <rects>
        <_>
          22 27 21 8 -1.</_>
        <_>
          22 31 21 4 2.</_></rects>
      <tilted>0</tilted></_>
    <_>
      <rects>
        <_>
          37 1 5 6 -1.</_>
        <_>
          37 4 5 3 2.</_></rects>
      <tilted>0</tilted></_></features></cascade>
</opencv_storage>
