<?xml version="1.0"?>
<opencv_storage>
<myhaar type_id="opencv-haar-classifier">
  <size>
    24 24</size>
  <stages>
    <_>
      <trees>
        <_>
          <_>
            <feature>
              <rects>
                <_>
                  0 0 12 20 -1.</_>
                <_>
                  3 0 6 20 2.</_></rects>
              <tilted>0</tilted></feature>
            <threshold>-0.1101649999618530</threshold>
            <left_val>1.</left_val>
            <right_val>-0.9999998211860657</right_val></_></_></trees>
      <stage_threshold>1.</stage_threshold>
      <parent>-1</parent>
      <next>-1</next></_>
    <_>
      <trees>
        <_>
          <_>
            <feature>
              <rects>
                <_>
                  0 0 12 22 -1.</_>
                <_>
                  3 0 6 22 2.</_></rects>
              <tilted>0</tilted></feature>
            <threshold>-0.1254885941743851</threshold>
            <left_val>-1.</left_val>
            <right_val>0.9999998211860657</right_val></_></_></trees>
      <stage_threshold>0.9999998211860657</stage_threshold>
      <parent>0</parent>
      <next>-1</next></_>
    <_>
      <trees>
        <_>
          <_>
            <feature>
              <rects>
                <_>
                  0 0 10 8 -1.</_>
                <_>
                  0 2 10 4 2.</_></rects>
              <tilted>0</tilted></feature>
            <threshold>-0.0185544397681952</threshold>
            <left_val>1.</left_val>
            <right_val>-0.9999998211860657</right_val></_></_></trees>
      <stage_threshold>1.</stage_threshold>
      <parent>1</parent>
      <next>-1</next></_>
    <_>
      <trees>
        <_>
          <_>
            <feature>
              <rects>
                <_>
                  0 0 10 8 -1.</_>
                <_>
                  0 2 10 4 2.</_></rects>
              <tilted>0</tilted></feature>
            <threshold>-0.0208907108753920</threshold>
            <left_val>-1.</left_val>
            <right_val>0.9999995231628418</right_val></_></_></trees>
      <stage_threshold>0.9999995231628418</stage_threshold>
      <parent>2</parent>
      <next>-1</next></_>
    <_>
      <trees>
        <_>
          <_>
            <feature>
              <rects>
                <_>
                  0 0 12 24 -1.</_>
                <_>
                  3 0 6 24 2.</_></rects>
              <tilted>0</tilted></feature>
            <threshold>-0.1014244034886360</threshold>
            <left_val>-1.</left_val>
            <right_val>0.9999998211860657</right_val></_></_></trees>
      <stage_threshold>0.9999998211860657</stage_threshold>
      <parent>3</parent>
      <next>-1</next></_></stages></myhaar>
</opencv_storage>
