<?xml version="1.0"?>
<opencv_storage>
<cascade>
  <stageType>BOOST</stageType>
  <featureType>HAAR</featureType>
  <height>24</height>
  <width>24</width>
  <stageParams>
    <boostType>GAB</boostType>
    <minHitRate>9.9500000476837158e-01</minHitRate>
    <maxFalseAlarm>5.0000000000000000e-01</maxFalseAlarm>
    <weightTrimRate>9.4999998807907104e-01</weightTrimRate>
    <maxDepth>1</maxDepth>
    <maxWeakCount>100</maxWeakCount></stageParams>
  <featureParams>
    <maxCatCount>0</maxCatCount>
    <featSize>1</featSize>
    <mode>BASIC</mode></featureParams>
  <stageNum>4</stageNum>
  <stages>
    <!-- stage 0 -->
    <_>
      <maxWeakCount>2</maxWeakCount>
      <stageThreshold>-7.0989149808883667e-01</stageThreshold>
      <weakClassifiers>
        <_>
          <internalNodes>
            0 -1 2 -1.5504035353660583e-01</internalNodes>
          <leafValues>
            4.1176471114158630e-01 -9.9799197912216187e-01</leafValues></_>
        <_>
          <internalNodes>
            0 -1 5 7.7605962753295898e-02</internalNodes>
          <leafValues>
            -9.9284750223159790e-01 2.8810048103332520e-01</leafValues></_></weakClassifiers></_>
    <!-- stage 1 -->
    <_>
      <maxWeakCount>2</maxWeakCount>
      <stageThreshold>-7.9053306579589844e-01</stageThreshold>
      <weakClassifiers>
        <_>
          <internalNodes>
            0 -1 1 -4.7502952814102173e-01</internalNodes>
          <leafValues>
            2.2222222387790680e-01 -9.9597990512847900e-01</leafValues></_>
        <_>
          <internalNodes>
            0 -1 7 -9.0702474117279053e-02</internalNodes>
          <leafValues>
            2.0544685423374176e-01 -1.</leafValues></_></weakClassifiers></_>
    <!-- stage 2 -->
    <_>
      <maxWeakCount>3</maxWeakCount>
      <stageThreshold>-1.6032704114913940e+00</stageThreshold>
      <weakClassifiers>
        <_>
          <internalNodes>
            0 -1 8 -6.3561256974935532e-03</internalNodes>
          <leafValues>
            -7.6923079788684845e-02 -9.8600000143051147e-01</leafValues></_>
        <_>
          <internalNodes>
            0 -1 0 -1.2872604653239250e-02</internalNodes>
          <leafValues>
            3.0528530478477478e-01 -9.5167160034179688e-01</leafValues></_>
        <_>
          <internalNodes>
            0 -1 6 -1.4437030768021941e-03</internalNodes>
          <leafValues>
            6.6037750244140625e-01 -9.2255568504333496e-01</leafValues></_></weakClassifiers></_>
    <!-- stage 3 -->
    <_>
      <maxWeakCount>2</maxWeakCount>
      <stageThreshold>-1.0514643192291260e+00</stageThreshold>
      <weakClassifiers>
        <_>
          <internalNodes>
            0 -1 4 -1.1469796299934387e-02</internalNodes>
          <leafValues>
            -5.4914840036390800e-17 -9.8208957910537720e-01</leafValues></_>
        <_>
          <internalNodes>
            0 -1 3 3.8640755414962769e-01</internalNodes>
          <leafValues>
            -1. -6.9374822080135345e-02</leafValues></_></weakClassifiers></_></stages>
  <features>
    <_>
      <rects>
        <_>
          0 13 2 10 -1.</_>
        <_>
          1 13 1 10 2.</_></rects>
      <tilted>0</tilted></_>
    <_>
      <rects>
        <_>
          1 3 21 18 -1.</_>
        <_>
          1 12 21 9 2.</_></rects>
      <tilted>0</tilted></_>
    <_>
      <rects>
        <_>
          1 4 15 7 -1.</_>
        <_>
          6 4 5 7 3.</_></rects>
      <tilted>0</tilted></_>
    <_>
      <rects>
        <_>
          6 2 18 22 -1.</_>
        <_>
          15 2 9 22 2.</_></rects>
      <tilted>0</tilted></_>
    <_>
      <rects>
        <_>
          7 2 2 4 -1.</_>
        <_>
          8 2 1 4 2.</_></rects>
      <tilted>0</tilted></_>
    <_>
      <rects>
        <_>
          11 19 12 4 -1.</_>
        <_>
          17 19 6 4 2.</_></rects>
      <tilted>0</tilted></_>
    <_>
      <rects>
        <_>
          15 21 2 2 -1.</_>
        <_>
          15 21 1 1 2.</_>
        <_>
          16 22 1 1 2.</_></rects>
      <tilted>0</tilted></_>
    <_>
      <rects>
        <_>
          16 7 6 14 -1.</_>
        <_>
          16 14 6 7 2.</_></rects>
      <tilted>0</tilted></_>
    <_>
      <rects>
        <_>
          19 12 2 6 -1.</_>
        <_>
          19 12 1 3 2.</_>
        <_>
          20 15 1 3 2.</_></rects>
      <tilted>0</tilted></_></features></cascade>
</opencv_storage>
