<?xml version="1.0"?>
<opencv_storage>
<cascade>
  <stageType>BOOST</stageType>
  <featureType>HAAR</featureType>
  <height>30</height>
  <width>30</width>
  <stageParams>
    <boostType>GAB</boostType>
    <minHitRate>9.9500000476837158e-01</minHitRate>
    <maxFalseAlarm>5.0000000000000000e-01</maxFalseAlarm>
    <weightTrimRate>9.4999998807907104e-01</weightTrimRate>
    <maxDepth>1</maxDepth>
    <maxWeakCount>100</maxWeakCount></stageParams>
  <featureParams>
    <maxCatCount>0</maxCatCount>
    <featSize>1</featSize>
    <mode>BASIC</mode></featureParams>
  <stageNum>3</stageNum>
  <stages>
    <!-- stage 0 -->
    <_>
      <maxWeakCount>3</maxWeakCount>
      <stageThreshold>-1.5471106767654419e+00</stageThreshold>
      <weakClassifiers>
        <_>
          <internalNodes>
            0 -1 5 3.2743638753890991e-01</internalNodes>
          <leafValues>
            -9.9335104227066040e-01 6.6666668653488159e-01</leafValues></_>
        <_>
          <internalNodes>
            0 -1 4 5.2820347249507904e-02</internalNodes>
          <leafValues>
            -9.8839813470840454e-01 3.4250280261039734e-01</leafValues></_>
        <_>
          <internalNodes>
            0 -1 0 -4.1891364380717278e-03</internalNodes>
          <leafValues>
            4.3463850021362305e-01 -1.</leafValues></_></weakClassifiers></_>
    <!-- stage 1 -->
    <_>
      <maxWeakCount>2</maxWeakCount>
      <stageThreshold>-6.0337108373641968e-01</stageThreshold>
      <weakClassifiers>
        <_>
          <internalNodes>
            0 -1 6 5.8936838060617447e-02</internalNodes>
          <leafValues>
            -9.9334663152694702e-01 4.2857143282890320e-01</leafValues></_>
        <_>
          <internalNodes>
            0 -1 2 -1.3346116244792938e-01</internalNodes>
          <leafValues>
            3.8997557759284973e-01 -9.8826581239700317e-01</leafValues></_></weakClassifiers></_>
    <!-- stage 2 -->
    <_>
      <maxWeakCount>3</maxWeakCount>
      <stageThreshold>-1.6953175067901611e+00</stageThreshold>
      <weakClassifiers>
        <_>
          <internalNodes>
            0 -1 3 -1.9235765933990479e-01</internalNodes>
          <leafValues>
            1. -9.8938989639282227e-01</leafValues></_>
        <_>
          <internalNodes>
            0 -1 1 -1.9739940762519836e-02</internalNodes>
          <leafValues>
            2.5592818856239319e-01 -9.9020612239837646e-01</leafValues></_>
        <_>
          <internalNodes>
            0 -1 7 -3.0556205660104752e-02</internalNodes>
          <leafValues>
            3.9829912781715393e-01 -9.6185576915740967e-01</leafValues></_></weakClassifiers></_></stages>
  <features>
    <_>
      <rects>
        <_>
          0 9 6 1 -1.</_>
        <_>
          3 9 3 1 2.</_></rects>
      <tilted>0</tilted></_>
    <_>
      <rects>
        <_>
          0 12 2 18 -1.</_>
        <_>
          1 12 1 18 2.</_></rects>
      <tilted>0</tilted></_>
    <_>
      <rects>
        <_>
          1 1 13 10 -1.</_>
        <_>
          1 6 13 5 2.</_></rects>
      <tilted>0</tilted></_>
    <_>
      <rects>
        <_>
          7 10 16 12 -1.</_>
        <_>
          7 14 16 4 3.</_></rects>
      <tilted>0</tilted></_>
    <_>
      <rects>
        <_>
          11 20 16 8 -1.</_>
        <_>
          11 20 8 4 2.</_>
        <_>
          19 24 8 4 2.</_></rects>
      <tilted>0</tilted></_>
    <_>
      <rects>
        <_>
          12 7 18 23 -1.</_>
        <_>
          21 7 9 23 2.</_></rects>
      <tilted>0</tilted></_>
    <_>
      <rects>
        <_>
          15 20 14 8 -1.</_>
        <_>
          15 20 7 4 2.</_>
        <_>
          22 24 7 4 2.</_></rects>
      <tilted>0</tilted></_>
    <_>
      <rects>
        <_>
          21 8 9 6 -1.</_>
        <_>
          24 8 3 6 3.</_></rects>
      <tilted>0</tilted></_></features></cascade>
</opencv_storage>
