<?xml version="1.0"?>
<opencv_storage>
<myhaar type_id="opencv-haar-classifier">
  <size>
    24 24</size>
  <stages>
    <_>
      <trees>
        <_>
          <_>
            <feature>
              <rects>
                <_>
                  0 0 8 22 -1.</_>
                <_>
                  0 0 4 11 2.</_>
                <_>
                  4 11 4 11 2.</_></rects>
              <tilted>0</tilted></feature>
            <threshold>-0.0839442834258080</threshold>
            <left_val>1.</left_val>
            <right_val>-1.</right_val></_></_></trees>
      <stage_threshold>1.</stage_threshold>
      <parent>-1</parent>
      <next>-1</next></_>
    <_>
      <trees>
        <_>
          <_>
            <feature>
              <rects>
                <_>
                  8 0 1 16 -1.</_>
                <_>
                  8 4 1 8 2.</_></rects>
              <tilted>0</tilted></feature>
            <threshold>-0.0119784995913506</threshold>
            <left_val>1.</left_val>
            <right_val>-1.</right_val></_></_></trees>
      <stage_threshold>1.</stage_threshold>
      <parent>0</parent>
      <next>-1</next></_>
    <_>
      <trees>
        <_>
          <_>
            <feature>
              <rects>
                <_>
                  0 1 15 3 -1.</_>
                <_>
                  5 1 5 3 3.</_></rects>
              <tilted>0</tilted></feature>
            <threshold>-0.0353738702833653</threshold>
            <left_val>1.</left_val>
            <right_val>-1.</right_val></_></_></trees>
      <stage_threshold>1.</stage_threshold>
      <parent>1</parent>
      <next>-1</next></_>
    <_>
      <trees>
        <_>
          <_>
            <feature>
              <rects>
                <_>
                  0 4 24 20 -1.</_>
                <_>
                  0 14 24 10 2.</_></rects>
              <tilted>0</tilted></feature>
            <threshold>-0.3252565860748291</threshold>
            <left_val>1.</left_val>
            <right_val>-1.</right_val></_></_></trees>
      <stage_threshold>1.</stage_threshold>
      <parent>2</parent>
      <next>-1</next></_></stages></myhaar>
</opencv_storage>
