<?xml version="1.0"?>
<opencv_storage>
<cascade>
  <stageType>BOOST</stageType>
  <featureType>HAAR</featureType>
  <height>24</height>
  <width>24</width>
  <stageParams>
    <boostType>GAB</boostType>
    <minHitRate>9.9500000476837158e-01</minHitRate>
    <maxFalseAlarm>5.0000000000000000e-01</maxFalseAlarm>
    <weightTrimRate>9.4999998807907104e-01</weightTrimRate>
    <maxDepth>1</maxDepth>
    <maxWeakCount>100</maxWeakCount></stageParams>
  <featureParams>
    <maxCatCount>0</maxCatCount>
    <featSize>1</featSize>
    <mode>BASIC</mode></featureParams>
  <stageNum>4</stageNum>
  <stages>
    <!-- stage 0 -->
    <_>
      <maxWeakCount>2</maxWeakCount>
      <stageThreshold>-2.4123339354991913e-01</stageThreshold>
      <weakClassifiers>
        <_>
          <internalNodes>
            0 -1 4 -1.0913738608360291e-01</internalNodes>
          <leafValues>
            8.5714286565780640e-01 -9.9600529670715332e-01</leafValues></_>
        <_>
          <internalNodes>
            0 -1 3 -3.2422620058059692e-01</internalNodes>
          <leafValues>
            7.5477194786071777e-01 -9.9846959114074707e-01</leafValues></_></weakClassifiers></_>
    <!-- stage 1 -->
    <_>
      <maxWeakCount>3</maxWeakCount>
      <stageThreshold>-1.6406332254409790e+00</stageThreshold>
      <weakClassifiers>
        <_>
          <internalNodes>
            0 -1 0 -2.7011763304471970e-02</internalNodes>
          <leafValues>
            -1.2500000000000000e-01 -9.9730455875396729e-01</leafValues></_>
        <_>
          <internalNodes>
            0 -1 5 -2.0972538739442825e-02</internalNodes>
          <leafValues>
            2.9407379031181335e-01 -9.7663378715515137e-01</leafValues></_>
        <_>
          <internalNodes>
            0 -1 2 -3.8285322953015566e-03</internalNodes>
          <leafValues>
            3.3330515027046204e-01 -1.</leafValues></_></weakClassifiers></_>
    <!-- stage 2 -->
    <_>
      <maxWeakCount>3</maxWeakCount>
      <stageThreshold>-2.0220179557800293e+00</stageThreshold>
      <weakClassifiers>
        <_>
          <internalNodes>
            0 -1 8 6.8210169672966003e-02</internalNodes>
          <leafValues>
            -9.8150593042373657e-01 1.</leafValues></_>
        <_>
          <internalNodes>
            0 -1 10 -3.6612164229154587e-02</internalNodes>
          <leafValues>
            -1.3311985135078430e-01 -9.8972564935684204e-01</leafValues></_>
        <_>
          <internalNodes>
            0 -1 1 -2.8234180808067322e-01</internalNodes>
          <leafValues>
            4.4781649112701416e-01 -9.0739226341247559e-01</leafValues></_></weakClassifiers></_>
    <!-- stage 3 -->
    <_>
      <maxWeakCount>3</maxWeakCount>
      <stageThreshold>-1.9106807708740234e+00</stageThreshold>
      <weakClassifiers>
        <_>
          <internalNodes>
            0 -1 9 -2.7650716900825500e-01</internalNodes>
          <leafValues>
            3.2873011193249475e-17 -9.8539179563522339e-01</leafValues></_>
        <_>
          <internalNodes>
            0 -1 6 -2.0146825909614563e-01</internalNodes>
          <leafValues>
            -1.0559596121311188e-01 -9.7987508773803711e-01</leafValues></_>
        <_>
          <internalNodes>
            0 -1 7 -1.6466192901134491e-02</internalNodes>
          <leafValues>
            5.4586123675107956e-02 -1.</leafValues></_></weakClassifiers></_></stages>
  <features>
    <_>
      <rects>
        <_>
          0 1 8 4 -1.</_>
        <_>
          0 1 4 2 2.</_>
        <_>
          4 3 4 2 2.</_></rects>
      <tilted>0</tilted></_>
    <_>
      <rects>
        <_>
          0 6 18 8 -1.</_>
        <_>
          9 6 9 8 2.</_></rects>
      <tilted>0</tilted></_>
    <_>
      <rects>
        <_>
          1 1 2 3 -1.</_>
        <_>
          1 2 2 1 3.</_></rects>
      <tilted>0</tilted></_>
    <_>
      <rects>
        <_>
          1 5 14 18 -1.</_>
        <_>
          8 5 7 18 2.</_></rects>
      <tilted>0</tilted></_>
    <_>
      <rects>
        <_>
          2 2 14 8 -1.</_>
        <_>
          2 2 7 4 2.</_>
        <_>
          9 6 7 4 2.</_></rects>
      <tilted>0</tilted></_>
    <_>
      <rects>
        <_>
          3 2 6 4 -1.</_>
        <_>
          3 2 3 2 2.</_>
        <_>
          6 4 3 2 2.</_></rects>
      <tilted>0</tilted></_>
    <_>
      <rects>
        <_>
          8 0 13 20 -1.</_>
        <_>
          8 10 13 10 2.</_></rects>
      <tilted>0</tilted></_>
    <_>
      <rects>
        <_>
          11 0 1 20 -1.</_>
        <_>
          11 10 1 10 2.</_></rects>
      <tilted>0</tilted></_>
    <_>
      <rects>
        <_>
          11 13 10 3 -1.</_>
        <_>
          16 13 5 3 2.</_></rects>
      <tilted>0</tilted></_>
    <_>
      <rects>
        <_>
          12 1 11 20 -1.</_>
        <_>
          12 11 11 10 2.</_></rects>
      <tilted>0</tilted></_>
    <_>
      <rects>
        <_>
          12 6 12 5 -1.</_>
        <_>
          16 6 4 5 3.</_></rects>
      <tilted>0</tilted></_></features></cascade>
</opencv_storage>
