<?xml version="1.0"?>
<opencv_storage>
<cascade>
  <stageType>BOOST</stageType>
  <featureType>HAAR</featureType>
  <height>24</height>
  <width>24</width>
  <stageParams>
    <boostType>GAB</boostType>
    <minHitRate>9.9500000476837158e-01</minHitRate>
    <maxFalseAlarm>5.0000000000000000e-01</maxFalseAlarm>
    <weightTrimRate>9.4999998807907104e-01</weightTrimRate>
    <maxDepth>1</maxDepth>
    <maxWeakCount>100</maxWeakCount></stageParams>
  <featureParams>
    <maxCatCount>0</maxCatCount>
    <featSize>1</featSize>
    <mode>BASIC</mode></featureParams>
  <stageNum>5</stageNum>
  <stages>
    <!-- stage 0 -->
    <_>
      <maxWeakCount>2</maxWeakCount>
      <stageThreshold>-5.4898363351821899e-01</stageThreshold>
      <weakClassifiers>
        <_>
          <internalNodes>
            0 -1 8 7.2170108556747437e-02</internalNodes>
          <leafValues>
            -9.8608350753784180e-01 8.6666667461395264e-01</leafValues></_>
        <_>
          <internalNodes>
            0 -1 9 1.1909365653991699e-01</internalNodes>
          <leafValues>
            -9.9541294574737549e-01 4.3709984421730042e-01</leafValues></_></weakClassifiers></_>
    <!-- stage 1 -->
    <_>
      <maxWeakCount>2</maxWeakCount>
      <stageThreshold>-1.0990002155303955e+00</stageThreshold>
      <weakClassifiers>
        <_>
          <internalNodes>
            0 -1 4 -9.5295861363410950e-02</internalNodes>
          <leafValues>
            -1.1111111193895340e-01 -9.8984771966934204e-01</leafValues></_>
        <_>
          <internalNodes>
            0 -1 12 5.1384463906288147e-02</internalNodes>
          <leafValues>
            -9.8788911104202271e-01 3.1266498565673828e-01</leafValues></_></weakClassifiers></_>
    <!-- stage 2 -->
    <_>
      <maxWeakCount>3</maxWeakCount>
      <stageThreshold>-1.7655254602432251e+00</stageThreshold>
      <weakClassifiers>
        <_>
          <internalNodes>
            0 -1 0 -4.0239030122756958e-01</internalNodes>
          <leafValues>
            1.6666667163372040e-01 -9.8595786094665527e-01</leafValues></_>
        <_>
          <internalNodes>
            0 -1 6 -2.4120690301060677e-02</internalNodes>
          <leafValues>
            1.8965741991996765e-01 -9.5263141393661499e-01</leafValues></_>
        <_>
          <internalNodes>
            0 -1 7 -1.8780888617038727e-01</internalNodes>
          <leafValues>
            3.8262000679969788e-01 -9.6922498941421509e-01</leafValues></_></weakClassifiers></_>
    <!-- stage 3 -->
    <_>
      <maxWeakCount>2</maxWeakCount>
      <stageThreshold>-1.2519736289978027e+00</stageThreshold>
      <weakClassifiers>
        <_>
          <internalNodes>
            0 -1 3 -7.0705369114875793e-02</internalNodes>
          <leafValues>
            1.0000000149011612e-01 -9.8001998662948608e-01</leafValues></_>
        <_>
          <internalNodes>
            0 -1 2 -4.2074937373399734e-02</internalNodes>
          <leafValues>
            -2.7195361256599426e-01 -9.8879122734069824e-01</leafValues></_></weakClassifiers></_>
    <!-- stage 4 -->
    <_>
      <maxWeakCount>4</maxWeakCount>
      <stageThreshold>-2.4038553237915039e+00</stageThreshold>
      <weakClassifiers>
        <_>
          <internalNodes>
            0 -1 5 -5.9465784579515457e-03</internalNodes>
          <leafValues>
            -2.8000000119209290e-01 -9.7590363025665283e-01</leafValues></_>
        <_>
          <internalNodes>
            0 -1 1 -3.8837969303131104e-01</internalNodes>
          <leafValues>
            2.8733009099960327e-01 -9.0421193838119507e-01</leafValues></_>
        <_>
          <internalNodes>
            0 -1 10 -1.1614484712481499e-02</internalNodes>
          <leafValues>
            4.8743957281112671e-01 -8.4275358915328979e-01</leafValues></_>
        <_>
          <internalNodes>
            0 -1 11 -1.2250420637428761e-02</internalNodes>
          <leafValues>
            3.1901371479034424e-01 -1.</leafValues></_></weakClassifiers></_></stages>
  <features>
    <_>
      <rects>
        <_>
          0 4 17 18 -1.</_>
        <_>
          0 13 17 9 2.</_></rects>
      <tilted>0</tilted></_>
    <_>
      <rects>
        <_>
          0 4 19 16 -1.</_>
        <_>
          0 12 19 8 2.</_></rects>
      <tilted>0</tilted></_>
    <_>
      <rects>
        <_>
          0 11 6 13 -1.</_>
        <_>
          3 11 3 13 2.</_></rects>
      <tilted>0</tilted></_>
    <_>
      <rects>
        <_>
          1 2 12 3 -1.</_>
        <_>
          5 2 4 3 3.</_></rects>
      <tilted>0</tilted></_>
    <_>
      <rects>
        <_>
          1 8 12 6 -1.</_>
        <_>
          7 8 6 6 2.</_></rects>
      <tilted>0</tilted></_>
    <_>
      <rects>
        <_>
          4 0 3 2 -1.</_>
        <_>
          4 1 3 1 2.</_></rects>
      <tilted>0</tilted></_>
    <_>
      <rects>
        <_>
          5 9 4 6 -1.</_>
        <_>
          5 12 4 3 2.</_></rects>
      <tilted>0</tilted></_>
    <_>
      <rects>
        <_>
          8 2 9 20 -1.</_>
        <_>
          8 12 9 10 2.</_></rects>
      <tilted>0</tilted></_>
    <_>
      <rects>
        <_>
          9 7 12 3 -1.</_>
        <_>
          13 7 4 3 3.</_></rects>
      <tilted>0</tilted></_>
    <_>
      <rects>
        <_>
          13 2 10 22 -1.</_>
        <_>
          13 2 5 11 2.</_>
        <_>
          18 13 5 11 2.</_></rects>
      <tilted>0</tilted></_>
    <_>
      <rects>
        <_>
          15 9 6 3 -1.</_>
        <_>
          17 9 2 3 3.</_></rects>
      <tilted>0</tilted></_>
    <_>
      <rects>
        <_>
          16 8 6 5 -1.</_>
        <_>
          18 8 2 5 3.</_></rects>
      <tilted>0</tilted></_>
    <_>
      <rects>
        <_>
          20 4 4 13 -1.</_>
        <_>
          22 4 2 13 2.</_></rects>
      <tilted>0</tilted></_></features></cascade>
</opencv_storage>
