<?xml version="1.0"?>
<opencv_storage>
<myhaar type_id="opencv-haar-classifier">
  <size>
    24 24</size>
  <stages>
    <_>
      <trees>
        <_>
          <_>
            <feature>
              <rects>
                <_>
                  2 8 8 2 -1.</_>
                <_>
                  2 8 4 2 2.</_></rects>
              <tilted>1</tilted></feature>
            <threshold>0.0498819500207901</threshold>
            <left_val>-1.</left_val>
            <right_val>0.9748361706733704</right_val></_></_></trees>
      <stage_threshold>0.9748361706733704</stage_threshold>
      <parent>-1</parent>
      <next>-1</next></_>
    <_>
      <trees>
        <_>
          <_>
            <feature>
              <rects>
                <_>
                  12 4 8 1 -1.</_>
                <_>
                  14 6 4 1 2.</_></rects>
              <tilted>1</tilted></feature>
            <threshold>0.0105865197256207</threshold>
            <left_val>-0.9032058715820313</left_val>
            <right_val>0.8746210932731628</right_val></_></_>
        <_>
          <_>
            <feature>
              <rects>
                <_>
                  7 1 10 22 -1.</_>
                <_>
                  7 12 10 11 2.</_></rects>
              <tilted>0</tilted></feature>
            <threshold>-0.2460471987724304</threshold>
            <left_val>0.8032295107841492</left_val>
            <right_val>-0.9259269237518311</right_val></_></_></trees>
      <stage_threshold>-0.0999764204025269</stage_threshold>
      <parent>0</parent>
      <next>-1</next></_>
    <_>
      <trees>
        <_>
          <_>
            <feature>
              <rects>
                <_>
                  0 23 24 1 -1.</_>
                <_>
                  6 23 12 1 2.</_></rects>
              <tilted>0</tilted></feature>
            <threshold>-2.2014260757714510e-003</threshold>
            <left_val>0.9748427867889404</left_val>
            <right_val>-0.9999923110008240</right_val></_></_></trees>
      <stage_threshold>0.9748427867889404</stage_threshold>
      <parent>1</parent>
      <next>-1</next></_>
    <_>
      <trees>
        <_>
          <_>
            <feature>
              <rects>
                <_>
                  0 8 12 7 -1.</_>
                <_>
                  6 8 6 7 2.</_></rects>
              <tilted>0</tilted></feature>
            <threshold>-0.1042155995965004</threshold>
            <left_val>0.8176556825637817</left_val>
            <right_val>-0.8999636769294739</right_val></_></_>
        <_>
          <_>
            <feature>
              <rects>
                <_>
                  15 0 1 12 -1.</_>
                <_>
                  12 3 1 6 2.</_></rects>
              <tilted>1</tilted></feature>
            <threshold>-0.0168237108737230</threshold>
            <left_val>0.4261176884174347</left_val>
            <right_val>-0.3458935916423798</right_val></_></_>
        <_>
          <_>
            <feature>
              <rects>
                <_>
                  9 0 12 1 -1.</_>
                <_>
                  12 3 6 1 2.</_></rects>
              <tilted>1</tilted></feature>
            <threshold>0.0203364100307226</threshold>
            <left_val>-0.7873939275741577</left_val>
            <right_val>0.9234722256660461</right_val></_></_></trees>
      <stage_threshold>-0.3223851919174194</stage_threshold>
      <parent>2</parent>
      <next>-1</next></_>
    <_>
      <trees>
        <_>
          <_>
            <feature>
              <rects>
                <_>
                  1 12 18 12 -1.</_>
                <_>
                  1 15 18 6 2.</_></rects>
              <tilted>0</tilted></feature>
            <threshold>-0.0381544306874275</threshold>
            <left_val>0.5700001120567322</left_val>
            <right_val>-0.9999936819076538</right_val></_></_></trees>
      <stage_threshold>0.5700001120567322</stage_threshold>
      <parent>3</parent>
      <next>-1</next></_>
    <_>
      <trees>
        <_>
          <_>
            <feature>
              <rects>
                <_>
                  8 1 2 10 -1.</_>
                <_>
                  8 1 1 5 2.</_>
                <_>
                  9 6 1 5 2.</_></rects>
              <tilted>0</tilted></feature>
            <threshold>-3.4205119591206312e-003</threshold>
            <left_val>0.8746268749237061</left_val>
            <right_val>-0.7367951869964600</right_val></_></_>
        <_>
          <_>
            <feature>
              <rects>
                <_>
                  12 1 6 1 -1.</_>
                <_>
                  14 1 2 1 3.</_></rects>
              <tilted>0</tilted></feature>
            <threshold>-2.8257089434191585e-004</threshold>
            <left_val>-1.</left_val>
            <right_val>0.2837353944778442</right_val></_></_>
        <_>
          <_>
            <feature>
              <rects>
                <_>
                  6 1 6 1 -1.</_>
                <_>
                  8 1 2 1 3.</_></rects>
              <tilted>0</tilted></feature>
            <threshold>1.9619250670075417e-003</threshold>
            <left_val>-0.7099217772483826</left_val>
            <right_val>0.8234906792640686</right_val></_></_></trees>
      <stage_threshold>0.3704308867454529</stage_threshold>
      <parent>4</parent>
      <next>-1</next></_>
    <_>
      <trees>
        <_>
          <_>
            <feature>
              <rects>
                <_>
                  3 3 12 6 -1.</_>
                <_>
                  6 3 6 6 2.</_></rects>
              <tilted>0</tilted></feature>
            <threshold>-0.0614289715886116</threshold>
            <left_val>0.9044731855392456</left_val>
            <right_val>-0.6031317114830017</right_val></_></_>
        <_>
          <_>
            <feature>
              <rects>
                <_>
                  13 0 1 12 -1.</_>
                <_>
                  9 4 1 4 3.</_></rects>
              <tilted>1</tilted></feature>
            <threshold>0.0221314206719399</threshold>
            <left_val>-0.1153334006667137</left_val>
            <right_val>0.7688304781913757</right_val></_></_>
        <_>
          <_>
            <feature>
              <rects>
                <_>
                  3 19 2 3 -1.</_>
                <_>
                  3 19 1 3 2.</_></rects>
              <tilted>1</tilted></feature>
            <threshold>5.0987780559808016e-004</threshold>
            <left_val>-0.9170982837677002</left_val>
            <right_val>0.6009758710861206</right_val></_></_></trees>
      <stage_threshold>-0.1279584020376205</stage_threshold>
      <parent>5</parent>
      <next>-1</next></_>
    <_>
      <trees>
        <_>
          <_>
            <feature>
              <rects>
                <_>
                  9 2 12 1 -1.</_>
                <_>
                  12 5 6 1 2.</_></rects>
              <tilted>1</tilted></feature>
            <threshold>0.0242354404181242</threshold>
            <left_val>-0.7255241870880127</left_val>
            <right_val>0.7874711155891419</right_val></_></_>
        <_>
          <_>
            <feature>
              <rects>
                <_>
                  15 5 4 9 -1.</_>
                <_>
                  15 8 4 3 3.</_></rects>
              <tilted>0</tilted></feature>
            <threshold>1.7990759806707501e-004</threshold>
            <left_val>-0.7544196844100952</left_val>
            <right_val>0.2276844978332520</right_val></_></_>
        <_>
          <_>
            <feature>
              <rects>
                <_>
                  3 5 16 4 -1.</_>
                <_>
                  3 5 8 2 2.</_>
                <_>
                  11 7 8 2 2.</_></rects>
              <tilted>0</tilted></feature>
            <threshold>-7.0171770639717579e-003</threshold>
            <left_val>0.6180819272994995</left_val>
            <right_val>-0.8864442110061646</right_val></_></_></trees>
      <stage_threshold>0.1202422007918358</stage_threshold>
      <parent>6</parent>
      <next>-1</next></_></stages></myhaar>
</opencv_storage>
