<?xml version="1.0"?>
<opencv_storage>
<myhaar type_id="opencv-haar-classifier">
  <size>
    24 24</size>
  <stages>
    <_>
      <trees>
        <_>
          <_>
            <feature>
              <rects>
                <_>
                  0 0 24 8 -1.</_>
                <_>
                  6 0 12 8 2.</_></rects>
              <tilted>0</tilted></feature>
            <threshold>-0.0986748412251472</threshold>
            <left_val>0.9565216898918152</left_val>
            <right_val>-0.9999992847442627</right_val></_></_></trees>
      <stage_threshold>0.9565216898918152</stage_threshold>
      <parent>-1</parent>
      <next>-1</next></_>
    <_>
      <trees>
        <_>
          <_>
            <feature>
              <rects>
                <_>
                  6 0 9 4 -1.</_>
                <_>
                  6 0 9 2 2.</_></rects>
              <tilted>1</tilted></feature>
            <threshold>0.0157060790807009</threshold>
            <left_val>-1.</left_val>
            <right_val>0.9999992847442627</right_val></_></_></trees>
      <stage_threshold>0.9999992847442627</stage_threshold>
      <parent>0</parent>
      <next>-1</next></_>
    <_>
      <trees>
        <_>
          <_>
            <feature>
              <rects>
                <_>
                  0 0 17 20 -1.</_>
                <_>
                  0 10 17 10 2.</_></rects>
              <tilted>0</tilted></feature>
            <threshold>-0.3021498918533325</threshold>
            <left_val>1.</left_val>
            <right_val>-0.9999989867210388</right_val></_></_></trees>
      <stage_threshold>1.</stage_threshold>
      <parent>1</parent>
      <next>-1</next></_>
    <_>
      <trees>
        <_>
          <_>
            <feature>
              <rects>
                <_>
                  3 7 4 3 -1.</_>
                <_>
                  3 7 2 3 2.</_></rects>
              <tilted>1</tilted></feature>
            <threshold>0.0239866301417351</threshold>
            <left_val>-1.</left_val>
            <right_val>0.9148926138877869</right_val></_></_></trees>
      <stage_threshold>0.9148926138877869</stage_threshold>
      <parent>2</parent>
      <next>-1</next></_>
    <_>
      <trees>
        <_>
          <_>
            <feature>
              <rects>
                <_>
                  1 13 21 4 -1.</_>
                <_>
                  1 14 21 2 2.</_></rects>
              <tilted>0</tilted></feature>
            <threshold>-0.0139069203287363</threshold>
            <left_val>0.9565216898918152</left_val>
            <right_val>-0.9999991059303284</right_val></_></_></trees>
      <stage_threshold>0.9565216898918152</stage_threshold>
      <parent>3</parent>
      <next>-1</next></_></stages></myhaar>
</opencv_storage>
