<?xml version="1.0"?>
<opencv_storage>
<myhaar type_id="opencv-haar-classifier">
  <size>
    24 24</size>
  <stages>
    <_>
      <trees>
        <_>
          <_>
            <feature>
              <rects>
                <_>
                  11 4 12 4 -1.</_>
                <_>
                  15 8 4 4 3.</_></rects>
              <tilted>1</tilted></feature>
            <threshold>0.0983714312314987</threshold>
            <left_val>-0.9228790998458862</left_val>
            <right_val>0.9181522130966187</right_val></_></_>
        <_>
          <_>
            <feature>
              <rects>
                <_>
                  12 10 8 6 -1.</_>
                <_>
                  14 12 4 6 2.</_></rects>
              <tilted>1</tilted></feature>
            <threshold>0.0337750390172005</threshold>
            <left_val>0.1241585984826088</left_val>
            <right_val>-0.7752243876457214</right_val></_></_>
        <_>
          <_>
            <feature>
              <rects>
                <_>
                  12 10 6 8 -1.</_>
                <_>
                  10 12 6 4 2.</_></rects>
              <tilted>1</tilted></feature>
            <threshold>-0.0454287007451057</threshold>
            <left_val>0.8853157162666321</left_val>
            <right_val>-0.8772047162055969</right_val></_></_></trees>
      <stage_threshold>0.0865951776504517</stage_threshold>
      <parent>-1</parent>
      <next>-1</next></_>
    <_>
      <trees>
        <_>
          <_>
            <feature>
              <rects>
                <_>
                  5 1 12 14 -1.</_>
                <_>
                  5 1 6 7 2.</_>
                <_>
                  11 8 6 7 2.</_></rects>
              <tilted>0</tilted></feature>
            <threshold>0.0639716163277626</threshold>
            <left_val>-0.9130434989929199</left_val>
            <right_val>0.7241333723068237</right_val></_></_>
        <_>
          <_>
            <feature>
              <rects>
                <_>
                  4 12 17 12 -1.</_>
                <_>
                  4 16 17 4 3.</_></rects>
              <tilted>0</tilted></feature>
            <threshold>-0.0733736231923103</threshold>
            <left_val>0.4971889853477478</left_val>
            <right_val>-0.9999926090240479</right_val></_></_></trees>
      <stage_threshold>-0.4158545136451721</stage_threshold>
      <parent>0</parent>
      <next>-1</next></_>
    <_>
      <trees>
        <_>
          <_>
            <feature>
              <rects>
                <_>
                  8 8 12 1 -1.</_>
                <_>
                  12 12 4 1 3.</_></rects>
              <tilted>1</tilted></feature>
            <threshold>0.0235220398753881</threshold>
            <left_val>-0.8360655903816223</left_val>
            <right_val>0.7391253113746643</right_val></_></_>
        <_>
          <_>
            <feature>
              <rects>
                <_>
                  0 18 24 6 -1.</_>
                <_>
                  6 18 12 6 2.</_></rects>
              <tilted>0</tilted></feature>
            <threshold>-0.0603880994021893</threshold>
            <left_val>0.6056203842163086</left_val>
            <right_val>-0.9999933838844299</right_val></_></_></trees>
      <stage_threshold>-0.2304451018571854</stage_threshold>
      <parent>1</parent>
      <next>-1</next></_>
    <_>
      <trees>
        <_>
          <_>
            <feature>
              <rects>
                <_>
                  12 6 9 3 -1.</_>
                <_>
                  15 9 3 3 3.</_></rects>
              <tilted>1</tilted></feature>
            <threshold>0.0514171682298183</threshold>
            <left_val>-0.9135447144508362</left_val>
            <right_val>0.7320967912673950</right_val></_></_>
        <_>
          <_>
            <feature>
              <rects>
                <_>
                  13 4 6 10 -1.</_>
                <_>
                  15 6 2 10 3.</_></rects>
              <tilted>1</tilted></feature>
            <threshold>-0.0536535009741783</threshold>
            <left_val>0.8366037011146545</left_val>
            <right_val>-0.1593976020812988</right_val></_></_>
        <_>
          <_>
            <feature>
              <rects>
                <_>
                  11 4 10 6 -1.</_>
                <_>
                  9 6 10 2 3.</_></rects>
              <tilted>1</tilted></feature>
            <threshold>0.0367814786732197</threshold>
            <left_val>-1.</left_val>
            <right_val>0.6113920807838440</right_val></_></_></trees>
      <stage_threshold>-0.4615502059459686</stage_threshold>
      <parent>2</parent>
      <next>-1</next></_>
    <_>
      <trees>
        <_>
          <_>
            <feature>
              <rects>
                <_>
                  10 10 8 1 -1.</_>
                <_>
                  12 12 4 1 2.</_></rects>
              <tilted>1</tilted></feature>
            <threshold>0.0140331396833062</threshold>
            <left_val>-0.7732995152473450</left_val>
            <right_val>0.8015614151954651</right_val></_></_>
        <_>
          <_>
            <feature>
              <rects>
                <_>
                  12 0 4 11 -1.</_>
                <_>
                  12 0 2 11 2.</_></rects>
              <tilted>1</tilted></feature>
            <threshold>-5.0363130867481232e-003</threshold>
            <left_val>-0.5932934880256653</left_val>
            <right_val>0.2679859995841980</right_val></_></_>
        <_>
          <_>
            <feature>
              <rects>
                <_>
                  12 0 11 4 -1.</_>
                <_>
                  12 0 11 2 2.</_></rects>
              <tilted>1</tilted></feature>
            <threshold>-0.0192683991044760</threshold>
            <left_val>0.5881314277648926</left_val>
            <right_val>-0.8918259739875794</right_val></_></_></trees>
      <stage_threshold>-0.7784615755081177</stage_threshold>
      <parent>3</parent>
      <next>-1</next></_>
    <_>
      <trees>
        <_>
          <_>
            <feature>
              <rects>
                <_>
                  0 2 10 15 -1.</_>
                <_>
                  5 2 5 15 2.</_></rects>
              <tilted>0</tilted></feature>
            <threshold>-0.0742076933383942</threshold>
            <left_val>0.6216214895248413</left_val>
            <right_val>-0.8214237093925476</right_val></_></_>
        <_>
          <_>
            <feature>
              <rects>
                <_>
                  15 21 8 2 -1.</_>
                <_>
                  15 22 8 1 2.</_></rects>
              <tilted>0</tilted></feature>
            <threshold>8.6148339323699474e-004</threshold>
            <left_val>-0.4430474042892456</left_val>
            <right_val>0.2276804000139237</right_val></_></_>
        <_>
          <_>
            <feature>
              <rects>
                <_>
                  1 21 8 2 -1.</_>
                <_>
                  1 22 8 1 2.</_></rects>
              <tilted>0</tilted></feature>
            <threshold>-9.5552837592549622e-005</threshold>
            <left_val>-1.</left_val>
            <right_val>0.4126448929309845</right_val></_></_></trees>
      <stage_threshold>-0.1810982972383499</stage_threshold>
      <parent>4</parent>
      <next>-1</next></_>
    <_>
      <trees>
        <_>
          <_>
            <feature>
              <rects>
                <_>
                  9 8 8 6 -1.</_>
                <_>
                  7 10 8 2 3.</_></rects>
              <tilted>1</tilted></feature>
            <threshold>-0.0459103994071484</threshold>
            <left_val>0.5337420701980591</left_val>
            <right_val>-0.8969010710716248</right_val></_></_>
        <_>
          <_>
            <feature>
              <rects>
                <_>
                  15 2 1 9 -1.</_>
                <_>
                  12 5 1 3 3.</_></rects>
              <tilted>1</tilted></feature>
            <threshold>6.4139608293771744e-003</threshold>
            <left_val>0.1265669018030167</left_val>
            <right_val>-0.7472187280654907</right_val></_></_>
        <_>
          <_>
            <feature>
              <rects>
                <_>
                  10 3 6 1 -1.</_>
                <_>
                  12 5 2 1 3.</_></rects>
              <tilted>1</tilted></feature>
            <threshold>-6.8937330506742001e-003</threshold>
            <left_val>0.5786092281341553</left_val>
            <right_val>-0.6550121903419495</right_val></_></_></trees>
      <stage_threshold>-0.8684887290000916</stage_threshold>
      <parent>5</parent>
      <next>-1</next></_>
    <_>
      <trees>
        <_>
          <_>
            <feature>
              <rects>
                <_>
                  5 20 10 3 -1.</_>
                <_>
                  5 21 10 1 3.</_></rects>
              <tilted>0</tilted></feature>
            <threshold>-8.7487051496282220e-004</threshold>
            <left_val>-1.</left_val>
            <right_val>0.4285696148872376</right_val></_></_></trees>
      <stage_threshold>0.4285696148872376</stage_threshold>
      <parent>6</parent>
      <next>-1</next></_>
    <_>
      <trees>
        <_>
          <_>
            <feature>
              <rects>
                <_>
                  4 0 19 4 -1.</_>
                <_>
                  3 1 19 2 2.</_></rects>
              <tilted>1</tilted></feature>
            <threshold>7.5213331729173660e-003</threshold>
            <left_val>-1.</left_val>
            <right_val>0.3928556144237518</right_val></_></_></trees>
      <stage_threshold>0.3928556144237518</stage_threshold>
      <parent>7</parent>
      <next>-1</next></_>
    <_>
      <trees>
        <_>
          <_>
            <feature>
              <rects>
                <_>
                  12 8 9 1 -1.</_>
                <_>
                  15 11 3 1 3.</_></rects>
              <tilted>1</tilted></feature>
            <threshold>0.0143997604027390</threshold>
            <left_val>-0.8954703807830811</left_val>
            <right_val>0.5212950110435486</right_val></_></_>
        <_>
          <_>
            <feature>
              <rects>
                <_>
                  5 18 14 4 -1.</_>
                <_>
                  5 19 14 2 2.</_></rects>
              <tilted>0</tilted></feature>
            <threshold>-2.8250119648873806e-003</threshold>
            <left_val>-1.</left_val>
            <right_val>0.3675802052021027</right_val></_></_>
        <_>
          <_>
            <feature>
              <rects>
                <_>
                  12 2 12 8 -1.</_>
                <_>
                  16 6 4 8 3.</_></rects>
              <tilted>1</tilted></feature>
            <threshold>0.2774221897125244</threshold>
            <left_val>-0.4924724102020264</left_val>
            <right_val>0.8625432848930359</right_val></_></_></trees>
      <stage_threshold>0.3346531093120575</stage_threshold>
      <parent>8</parent>
      <next>-1</next></_></stages></myhaar>
</opencv_storage>
