<?xml version="1.0"?>
<opencv_storage>
<myhaar type_id="opencv-haar-classifier">
  <size>
    24 24</size>
  <stages>
    <_>
      <trees>
        <_>
          <_>
            <feature>
              <rects>
                <_>
                  1 0 9 18 -1.</_>
                <_>
                  1 6 9 6 3.</_></rects>
              <tilted>0</tilted></feature>
            <threshold>0.1252187937498093</threshold>
            <left_val>-1.</left_val>
            <right_val>0.9526627063751221</right_val></_></_></trees>
      <stage_threshold>0.9526627063751221</stage_threshold>
      <parent>-1</parent>
      <next>-1</next></_>
    <_>
      <trees>
        <_>
          <_>
            <feature>
              <rects>
                <_>
                  12 2 12 10 -1.</_>
                <_>
                  15 5 6 10 2.</_></rects>
              <tilted>1</tilted></feature>
            <threshold>-0.1196670010685921</threshold>
            <left_val>0.7647061944007874</left_val>
            <right_val>-1.0000009536743164</right_val></_></_></trees>
      <stage_threshold>0.7647061944007874</stage_threshold>
      <parent>0</parent>
      <next>-1</next></_>
    <_>
      <trees>
        <_>
          <_>
            <feature>
              <rects>
                <_>
                  12 1 6 4 -1.</_>
                <_>
                  12 1 6 2 2.</_></rects>
              <tilted>1</tilted></feature>
            <threshold>-0.0128739597275853</threshold>
            <left_val>0.6256160736083984</left_val>
            <right_val>-1.0000009536743164</right_val></_></_></trees>
      <stage_threshold>0.6256160736083984</stage_threshold>
      <parent>1</parent>
      <next>-1</next></_>
    <_>
      <trees>
        <_>
          <_>
            <feature>
              <rects>
                <_>
                  0 6 8 12 -1.</_>
                <_>
                  4 6 4 12 2.</_></rects>
              <tilted>0</tilted></feature>
            <threshold>-0.0236015394330025</threshold>
            <left_val>0.5639814734458923</left_val>
            <right_val>-1.0000009536743164</right_val></_></_></trees>
      <stage_threshold>0.5639814734458923</stage_threshold>
      <parent>2</parent>
      <next>-1</next></_>
    <_>
      <trees>
        <_>
          <_>
            <feature>
              <rects>
                <_>
                  10 14 2 3 -1.</_>
                <_>
                  10 14 1 3 2.</_></rects>
              <tilted>1</tilted></feature>
            <threshold>2.2449019888881594e-004</threshold>
            <left_val>-1.</left_val>
            <right_val>0.4798209071159363</right_val></_></_></trees>
      <stage_threshold>0.4798209071159363</stage_threshold>
      <parent>3</parent>
      <next>-1</next></_>
    <_>
      <trees>
        <_>
          <_>
            <feature>
              <rects>
                <_>
                  6 10 10 3 -1.</_>
                <_>
                  6 11 10 1 3.</_></rects>
              <tilted>0</tilted></feature>
            <threshold>-5.6419661268591881e-003</threshold>
            <left_val>0.6426516771316528</left_val>
            <right_val>-0.7124605774879456</right_val></_></_>
        <_>
          <_>
            <feature>
              <rects>
                <_>
                  19 9 2 6 -1.</_>
                <_>
                  20 9 1 3 2.</_>
                <_>
                  19 12 1 3 2.</_></rects>
              <tilted>0</tilted></feature>
            <threshold>4.7254380770027637e-003</threshold>
            <left_val>-0.0901992470026016</left_val>
            <right_val>0.7346532940864563</right_val></_></_>
        <_>
          <_>
            <feature>
              <rects>
                <_>
                  3 9 2 6 -1.</_>
                <_>
                  3 9 1 3 2.</_>
                <_>
                  4 12 1 3 2.</_></rects>
              <tilted>0</tilted></feature>
            <threshold>-2.1144660422578454e-004</threshold>
            <left_val>0.5121849775314331</left_val>
            <right_val>-0.9999967217445374</right_val></_></_></trees>
      <stage_threshold>-0.2904748022556305</stage_threshold>
      <parent>4</parent>
      <next>-1</next></_>
    <_>
      <trees>
        <_>
          <_>
            <feature>
              <rects>
                <_>
                  5 10 12 3 -1.</_>
                <_>
                  5 11 12 1 3.</_></rects>
              <tilted>0</tilted></feature>
            <threshold>-7.1231978945434093e-003</threshold>
            <left_val>0.6814162135124207</left_val>
            <right_val>-0.7196270823478699</right_val></_></_>
        <_>
          <_>
            <feature>
              <rects>
                <_>
                  8 0 14 12 -1.</_>
                <_>
                  8 6 14 6 2.</_></rects>
              <tilted>0</tilted></feature>
            <threshold>-0.0580402389168739</threshold>
            <left_val>0.7287231087684631</left_val>
            <right_val>-0.5173730850219727</right_val></_></_></trees>
      <stage_threshold>9.0959668159484863e-003</stage_threshold>
      <parent>5</parent>
      <next>-1</next></_>
    <_>
      <trees>
        <_>
          <_>
            <feature>
              <rects>
                <_>
                  1 8 17 2 -1.</_>
                <_>
                  1 9 17 1 2.</_></rects>
              <tilted>0</tilted></feature>
            <threshold>-3.5366689553484321e-004</threshold>
            <left_val>-0.8814228773117065</left_val>
            <right_val>0.5479118227958679</right_val></_></_>
        <_>
          <_>
            <feature>
              <rects>
                <_>
                  12 3 4 12 -1.</_>
                <_>
                  13 4 2 12 2.</_></rects>
              <tilted>1</tilted></feature>
            <threshold>-0.0391268506646156</threshold>
            <left_val>0.5812023878097534</left_val>
            <right_val>-0.1726101934909821</right_val></_></_></trees>
      <stage_threshold>-0.3002204895019531</stage_threshold>
      <parent>6</parent>
      <next>-1</next></_></stages></myhaar>
</opencv_storage>
