<?xml version="1.0"?>
<opencv_storage>
<myhaar type_id="opencv-haar-classifier">
  <size>
    24 24</size>
  <stages>
    <_>
      <trees>
        <_>
          <_>
            <feature>
              <rects>
                <_>
                  0 0 10 6 -1.</_>
                <_>
                  0 0 5 3 2.</_>
                <_>
                  5 3 5 3 2.</_></rects>
              <tilted>0</tilted></feature>
            <threshold>0.0259860195219517</threshold>
            <left_val>-1.</left_val>
            <right_val>1.0000009536743164</right_val></_></_></trees>
      <stage_threshold>1.0000009536743164</stage_threshold>
      <parent>-1</parent>
      <next>-1</next></_>
    <_>
      <trees>
        <_>
          <_>
            <feature>
              <rects>
                <_>
                  1 0 10 7 -1.</_>
                <_>
                  6 0 5 7 2.</_></rects>
              <tilted>0</tilted></feature>
            <threshold>0.0588321909308434</threshold>
            <left_val>-1.</left_val>
            <right_val>1.0000009536743164</right_val></_></_></trees>
      <stage_threshold>1.0000009536743164</stage_threshold>
      <parent>0</parent>
      <next>-1</next></_>
    <_>
      <trees>
        <_>
          <_>
            <feature>
              <rects>
                <_>
                  1 8 4 1 -1.</_>
                <_>
                  1 8 2 1 2.</_></rects>
              <tilted>1</tilted></feature>
            <threshold>9.0927341952919960e-003</threshold>
            <left_val>-1.</left_val>
            <right_val>1.0000009536743164</right_val></_></_></trees>
      <stage_threshold>1.0000009536743164</stage_threshold>
      <parent>1</parent>
      <next>-1</next></_>
    <_>
      <trees>
        <_>
          <_>
            <feature>
              <rects>
                <_>
                  0 0 3 3 -1.</_>
                <_>
                  1 1 1 1 9.</_></rects>
              <tilted>0</tilted></feature>
            <threshold>7.6232821447774768e-004</threshold>
            <left_val>-1.</left_val>
            <right_val>1.0000009536743164</right_val></_></_>
        <_>
          <_>
            <feature>
              <rects>
                <_>
                  22 0 2 4 -1.</_>
                <_>
                  23 0 1 2 2.</_>
                <_>
                  22 2 1 2 2.</_></rects>
              <tilted>0</tilted></feature>
            <threshold>-2.5271430786233395e-005</threshold>
            <left_val>1.</left_val>
            <right_val>-1.</right_val></_></_></trees>
      <stage_threshold>2.0000009536743164</stage_threshold>
      <parent>2</parent>
      <next>-1</next></_>
    <_>
      <trees>
        <_>
          <_>
            <feature>
              <rects>
                <_>
                  0 14 4 8 -1.</_>
                <_>
                  1 14 2 8 2.</_></rects>
              <tilted>0</tilted></feature>
            <threshold>0.0183161906898022</threshold>
            <left_val>-1.</left_val>
            <right_val>1.0000009536743164</right_val></_></_></trees>
      <stage_threshold>1.0000009536743164</stage_threshold>
      <parent>3</parent>
      <next>-1</next></_></stages></myhaar>
</opencv_storage>
