<?xml version="1.0"?>
<opencv_storage>
<myhaar type_id="opencv-haar-classifier">
  <size>
    24 24</size>
  <stages>
    <_>
      <trees>
        <_>
          <_>
            <feature>
              <rects>
                <_>
                  9 3 12 8 -1.</_>
                <_>
                  12 6 6 8 2.</_></rects>
              <tilted>1</tilted></feature>
            <threshold>-0.0411378890275955</threshold>
            <left_val>0.5679448246955872</left_val>
            <right_val>-0.9999961256980896</right_val></_></_></trees>
      <stage_threshold>0.5679448246955872</stage_threshold>
      <parent>-1</parent>
      <next>-1</next></_>
    <_>
      <trees>
        <_>
          <_>
            <feature>
              <rects>
                <_>
                  11 7 13 4 -1.</_>
                <_>
                  10 8 13 2 2.</_></rects>
              <tilted>1</tilted></feature>
            <threshold>-0.0182209797203541</threshold>
            <left_val>0.8090459704399109</left_val>
            <right_val>-0.6414325833320618</right_val></_></_>
        <_>
          <_>
            <feature>
              <rects>
                <_>
                  11 5 12 6 -1.</_>
                <_>
                  17 5 6 3 2.</_>
                <_>
                  11 8 6 3 2.</_></rects>
              <tilted>0</tilted></feature>
            <threshold>-4.6381939318962395e-004</threshold>
            <left_val>0.2502576112747192</left_val>
            <right_val>-0.3982807099819183</right_val></_></_>
        <_>
          <_>
            <feature>
              <rects>
                <_>
                  0 6 2 6 -1.</_>
                <_>
                  0 9 2 3 2.</_></rects>
              <tilted>0</tilted></feature>
            <threshold>-9.7589399665594101e-003</threshold>
            <left_val>0.7347865104675293</left_val>
            <right_val>-0.6937261223793030</right_val></_></_>
        <_>
          <_>
            <feature>
              <rects>
                <_>
                  10 4 10 20 -1.</_>
                <_>
                  15 4 5 10 2.</_>
                <_>
                  10 14 5 10 2.</_></rects>
              <tilted>0</tilted></feature>
            <threshold>0.0752738565206528</threshold>
            <left_val>-0.6577227115631104</left_val>
            <right_val>0.8213493227958679</right_val></_></_></trees>
      <stage_threshold>-0.9406836032867432</stage_threshold>
      <parent>0</parent>
      <next>-1</next></_>
    <_>
      <trees>
        <_>
          <_>
            <feature>
              <rects>
                <_>
                  6 5 6 1 -1.</_>
                <_>
                  9 5 3 1 2.</_></rects>
              <tilted>0</tilted></feature>
            <threshold>-1.2572909472510219e-003</threshold>
            <left_val>0.4900665879249573</left_val>
            <right_val>-0.9999958276748657</right_val></_></_></trees>
      <stage_threshold>0.4900665879249573</stage_threshold>
      <parent>1</parent>
      <next>-1</next></_>
    <_>
      <trees>
        <_>
          <_>
            <feature>
              <rects>
                <_>
                  0 11 10 11 -1.</_>
                <_>
                  5 11 5 11 2.</_></rects>
              <tilted>0</tilted></feature>
            <threshold>-0.0104549098759890</threshold>
            <left_val>-1.</left_val>
            <right_val>0.4195564985275269</right_val></_></_></trees>
      <stage_threshold>0.4195564985275269</stage_threshold>
      <parent>2</parent>
      <next>-1</next></_>
    <_>
      <trees>
        <_>
          <_>
            <feature>
              <rects>
                <_>
                  0 11 24 5 -1.</_>
                <_>
                  6 11 12 5 2.</_></rects>
              <tilted>0</tilted></feature>
            <threshold>-0.0289402008056641</threshold>
            <left_val>0.4516133069992065</left_val>
            <right_val>-0.9999964833259583</right_val></_></_></trees>
      <stage_threshold>0.4516133069992065</stage_threshold>
      <parent>3</parent>
      <next>-1</next></_>
    <_>
      <trees>
        <_>
          <_>
            <feature>
              <rects>
                <_>
                  6 20 10 4 -1.</_>
                <_>
                  6 20 5 2 2.</_>
                <_>
                  11 22 5 2 2.</_></rects>
              <tilted>0</tilted></feature>
            <threshold>1.7368759727105498e-003</threshold>
            <left_val>0.3803681135177612</left_val>
            <right_val>-0.9999943971633911</right_val></_></_></trees>
      <stage_threshold>0.3803681135177612</stage_threshold>
      <parent>4</parent>
      <next>-1</next></_>
    <_>
      <trees>
        <_>
          <_>
            <feature>
              <rects>
                <_>
                  11 10 2 6 -1.</_>
                <_>
                  11 10 1 3 2.</_>
                <_>
                  12 13 1 3 2.</_></rects>
              <tilted>0</tilted></feature>
            <threshold>-6.9029541919007897e-005</threshold>
            <left_val>0.4009662866592407</left_val>
            <right_val>-0.8924682140350342</right_val></_></_>
        <_>
          <_>
            <feature>
              <rects>
                <_>
                  22 6 1 12 -1.</_>
                <_>
                  22 9 1 6 2.</_></rects>
              <tilted>0</tilted></feature>
            <threshold>3.6927359178662300e-004</threshold>
            <left_val>-0.7252544760704041</left_val>
            <right_val>0.2045305073261261</right_val></_></_>
        <_>
          <_>
            <feature>
              <rects>
                <_>
                  3 5 12 6 -1.</_>
                <_>
                  3 5 6 3 2.</_>
                <_>
                  9 8 6 3 2.</_></rects>
              <tilted>0</tilted></feature>
            <threshold>0.0255800299346447</threshold>
            <left_val>-0.5354949831962585</left_val>
            <right_val>0.7903004288673401</right_val></_></_>
        <_>
          <_>
            <feature>
              <rects>
                <_>
                  15 5 3 15 -1.</_>
                <_>
                  16 6 1 15 3.</_></rects>
              <tilted>1</tilted></feature>
            <threshold>7.9627055674791336e-003</threshold>
            <left_val>0.0844777226448059</left_val>
            <right_val>-0.9999992847442627</right_val></_></_></trees>
      <stage_threshold>-0.7753053903579712</stage_threshold>
      <parent>5</parent>
      <next>-1</next></_>
    <_>
      <trees>
        <_>
          <_>
            <feature>
              <rects>
                <_>
                  0 0 4 6 -1.</_>
                <_>
                  2 0 2 6 2.</_></rects>
              <tilted>0</tilted></feature>
            <threshold>2.1399300021585077e-004</threshold>
            <left_val>0.3787635862827301</left_val>
            <right_val>-0.8884704113006592</right_val></_></_>
        <_>
          <_>
            <feature>
              <rects>
                <_>
                  12 2 6 12 -1.</_>
                <_>
                  12 2 3 12 2.</_></rects>
              <tilted>1</tilted></feature>
            <threshold>-0.0274162292480469</threshold>
            <left_val>-1.</left_val>
            <right_val>7.6202149502933025e-003</right_val></_></_>
        <_>
          <_>
            <feature>
              <rects>
                <_>
                  12 2 12 6 -1.</_>
                <_>
                  12 2 12 3 2.</_></rects>
              <tilted>1</tilted></feature>
            <threshold>0.0921529531478882</threshold>
            <left_val>-0.4428833127021790</left_val>
            <right_val>0.6725841164588928</right_val></_></_>
        <_>
          <_>
            <feature>
              <rects>
                <_>
                  9 0 6 4 -1.</_>
                <_>
                  9 1 6 2 2.</_></rects>
              <tilted>0</tilted></feature>
            <threshold>8.2438364624977112e-003</threshold>
            <left_val>-0.4427543878555298</left_val>
            <right_val>0.7872424125671387</right_val></_></_></trees>
      <stage_threshold>-0.5364910960197449</stage_threshold>
      <parent>6</parent>
      <next>-1</next></_>
    <_>
      <trees>
        <_>
          <_>
            <feature>
              <rects>
                <_>
                  12 4 12 4 -1.</_>
                <_>
                  12 4 12 2 2.</_></rects>
              <tilted>1</tilted></feature>
            <threshold>0.0338602401316166</threshold>
            <left_val>-0.6938781738281250</left_val>
            <right_val>0.5354300737380981</right_val></_></_>
        <_>
          <_>
            <feature>
              <rects>
                <_>
                  21 1 3 3 -1.</_>
                <_>
                  22 1 1 3 3.</_></rects>
              <tilted>0</tilted></feature>
            <threshold>1.1269439710304141e-003</threshold>
            <left_val>0.1328146010637283</left_val>
            <right_val>-0.8489106893539429</right_val></_></_>
        <_>
          <_>
            <feature>
              <rects>
                <_>
                  9 0 7 3 -1.</_>
                <_>
                  8 1 7 1 3.</_></rects>
              <tilted>1</tilted></feature>
            <threshold>-6.4620207995176315e-003</threshold>
            <left_val>0.4930008947849274</left_val>
            <right_val>-0.5867025852203369</right_val></_></_></trees>
      <stage_threshold>-0.0680627226829529</stage_threshold>
      <parent>7</parent>
      <next>-1</next></_>
    <_>
      <trees>
        <_>
          <_>
            <feature>
              <rects>
                <_>
                  1 6 2 12 -1.</_>
                <_>
                  1 9 2 6 2.</_></rects>
              <tilted>0</tilted></feature>
            <threshold>-0.0177545696496964</threshold>
            <left_val>0.7355372905731201</left_val>
            <right_val>-0.4972062110900879</right_val></_></_>
        <_>
          <_>
            <feature>
              <rects>
                <_>
                  20 1 4 5 -1.</_>
                <_>
                  20 1 2 5 2.</_></rects>
              <tilted>0</tilted></feature>
            <threshold>-0.0102085499092937</threshold>
            <left_val>-1.</left_val>
            <right_val>0.0908993333578110</right_val></_></_>
        <_>
          <_>
            <feature>
              <rects>
                <_>
                  0 2 4 3 -1.</_>
                <_>
                  2 2 2 3 2.</_></rects>
              <tilted>0</tilted></feature>
            <threshold>-2.2805710323154926e-003</threshold>
            <left_val>-0.9310665726661682</left_val>
            <right_val>0.3534466028213501</right_val></_></_>
        <_>
          <_>
            <feature>
              <rects>
                <_>
                  22 7 2 3 -1.</_>
                <_>
                  21 8 2 1 3.</_></rects>
              <tilted>1</tilted></feature>
            <threshold>-1.9778460264205933e-003</threshold>
            <left_val>-0.8808841705322266</left_val>
            <right_val>0.0278059802949429</right_val></_></_></trees>
      <stage_threshold>-0.0768239498138428</stage_threshold>
      <parent>8</parent>
      <next>-1</next></_>
    <_>
      <trees>
        <_>
          <_>
            <feature>
              <rects>
                <_>
                  6 18 8 5 -1.</_>
                <_>
                  10 18 4 5 2.</_></rects>
              <tilted>0</tilted></feature>
            <threshold>-1.3166649732738733e-003</threshold>
            <left_val>-1.</left_val>
            <right_val>0.3274329006671906</right_val></_></_>
        <_>
          <_>
            <feature>
              <rects>
                <_>
                  22 7 2 3 -1.</_>
                <_>
                  21 8 2 1 3.</_></rects>
              <tilted>1</tilted></feature>
            <threshold>1.7116890521720052e-003</threshold>
            <left_val>0.1044505015015602</left_val>
            <right_val>-0.8601080179214478</right_val></_></_>
        <_>
          <_>
            <feature>
              <rects>
                <_>
                  2 7 3 2 -1.</_>
                <_>
                  3 8 1 2 3.</_></rects>
              <tilted>1</tilted></feature>
            <threshold>-7.7236378565430641e-003</threshold>
            <left_val>0.7963997721672058</left_val>
            <right_val>-0.4213238954544067</right_val></_></_></trees>
      <stage_threshold>0.0105595001950860</stage_threshold>
      <parent>9</parent>
      <next>-1</next></_>
    <_>
      <trees>
        <_>
          <_>
            <feature>
              <rects>
                <_>
                  0 17 24 6 -1.</_>
                <_>
                  0 19 24 2 3.</_></rects>
              <tilted>0</tilted></feature>
            <threshold>-5.5343247950077057e-003</threshold>
            <left_val>0.5090544223785400</left_val>
            <right_val>-0.6277899146080017</right_val></_></_>
        <_>
          <_>
            <feature>
              <rects>
                <_>
                  7 0 10 1 -1.</_>
                <_>
                  7 0 5 1 2.</_></rects>
              <tilted>0</tilted></feature>
            <threshold>-6.6581281134858727e-004</threshold>
            <left_val>-0.8405495882034302</left_val>
            <right_val>0.3437170982360840</right_val></_></_>
        <_>
          <_>
            <feature>
              <rects>
                <_>
                  2 0 8 20 -1.</_>
                <_>
                  4 0 4 20 2.</_></rects>
              <tilted>0</tilted></feature>
            <threshold>0.0163837000727654</threshold>
            <left_val>-0.7043117284774780</left_val>
            <right_val>0.3956828117370606</right_val></_></_></trees>
      <stage_threshold>0.0641876235604286</stage_threshold>
      <parent>10</parent>
      <next>-1</next></_></stages></myhaar>
</opencv_storage>
